حمي وارتعاد,0.09897175431251526,-0.18110932409763336,-0.05775554105639458,0.1477130949497223,-0.12530022859573364,-0.0010578371584415436,0.10202106833457947,0.33337387442588806,0.21601168811321259,-0.05380295217037201,0.053624849766492844,0.28413572907447815,0.2842787504196167,0.1959703415632248,0.10395192354917526,-0.16375279426574707,0.09193134307861328,-0.48539191484451294,0.11402907967567444,0.07536537945270538,-0.1581965535879135,0.08581814914941788,-0.24642673134803772,-0.2943210005760193,-0.22827619314193726,-0.03662627935409546,-0.10312879085540771,0.41679561138153076,-0.0364280603826046,-0.003461060579866171,0.010132608003914356,-0.06702511757612228,0.243653804063797,0.15787704288959503,-0.29288506507873535,0.08375746011734009,0.25645098090171814,0.09794032573699951,0.1632453054189682,0.09135543555021286,-0.026214996352791786,-0.22106444835662842,-0.20707619190216064,0.12672893702983856,-0.07571124285459518,0.5033101439476013,0.30085843801498413,0.13533972203731537,0.1885438859462738,0.017423469573259354,-0.44051405787467957,-0.32979652285575867,0.14401936531066895,0.26410359144210815,0.2426636815071106,-0.051739003509283066,-0.4313795268535614,0.2705715298652649,0.07343888282775879,0.23688259720802307,-0.014122754335403442,-0.048325128853321075,0.21619130671024323,0.03473344445228577,0.032781295478343964,0.14076536893844604,0.5241172313690186,0.13201437890529633,0.3548208475112915,-0.04257442429661751,-0.006216669455170631,-0.02347254753112793,0.23743027448654175,-0.1154906153678894,-0.026522904634475708,0.08409985899925232,-0.20699448883533478,0.03627893328666687,-0.13235154747962952,-0.06564341485500336,-0.006883122026920319,0.36328744888305664,0.27133113145828247,-0.2887612581253052,-0.09711997956037521,0.10664782673120499,-0.0941338837146759,-0.005125168710947037,0.18882492184638977,-0.01912079192698002,0.060865096747875214,-0.09630069136619568,-0.03738478571176529,-0.3253733217716217,0.17905163764953613,0.1512938141822815,0.01176900789141655,-0.26364994049072266,-0.17499947547912598,0.10269404202699661
سعال,0.6652672290802002,-0.10550420731306076,-0.18991810083389282,0.3021426200866699,0.1599772721529007,0.17166276276111603,0.4246183931827545,0.8689127564430237,0.40356990694999695,-0.2972557842731476,0.045519255101680756,0.03861132636666298,0.31471890211105347,0.16479285061359406,0.2886941730976105,-0.474541038274765,0.09897501021623611,-1.1475707292556763,-0.2946542501449585,-0.028046879917383194,0.4972141683101654,-0.1531253308057785,-0.6369805335998535,-0.988602340221405,0.10923252999782562,-0.1370571106672287,-0.12829484045505524,0.7261691689491272,-0.16152702271938324,0.18606050312519073,-0.10030610859394073,-0.5203245282173157,-0.020223788917064667,-0.29551857709884644,-0.018410712480545044,0.2015712708234787,0.7099876999855042,0.2720128297805786,-0.034984588623046875,-0.11158136278390884,-0.3978162407875061,-0.7016526460647583,-0.38690686225891113,-0.31546416878700256,-0.5091041922569275,0.6951630711555481,-0.22243420779705048,-0.41055041551589966,0.264153391122818,-0.059897247701883316,0.05865732207894325,-0.35801973938941956,0.08754906803369522,-0.08507738262414932,0.22707030177116394,0.8792480826377869,-0.300647497177124,0.13286879658699036,0.38684961199760437,0.11740200966596603,0.33422985672950745,-0.0020606026519089937,-0.295448362827301,-0.21824082732200623,-0.1830289512872696,0.051887668669223785,0.014430245384573936,-0.5455597043037415,1.3119046688079834,0.06245483458042145,0.7185317873954773,-0.35716503858566284,0.7020113468170166,-0.05356927216053009,-0.15229712426662445,0.14419229328632355,-0.5129584074020386,0.7419054508209229,-0.25211578607559204,-0.13305650651454926,0.022564802318811417,0.30092760920524597,0.5342292189598083,-0.3359796702861786,-0.9456515908241272,-0.1163165345788002,0.6728495359420776,0.31428903341293335,-0.33859696984291077,0.21216973662376404,0.2732836902141571,0.31263479590415955,-0.12913347780704498,-0.38715577125549316,0.2011580467224121,-0.3209056258201599,0.19579969346523285,-0.6207044720649719,0.0400480218231678,-0.01673547551035881
احتقان الانف,0.19468790292739868,0.08245095610618591,-0.2966749370098114,0.5514888763427734,0.2095491886138916,0.14504946768283844,-0.20502012968063354,0.7585347890853882,-0.2260756641626358,-0.2506297826766968,0.10833566635847092,0.15281842648983002,0.31001678109169006,0.31129103899002075,0.385516494512558,-0.007926277816295624,-0.36121997237205505,-0.4651477336883545,0.13860884308815002,-0.09950587153434753,0.15460529923439026,-0.22538679838180542,-0.8250194787979126,-0.6556821465492249,-0.012600570917129517,-0.11570574343204498,0.04569990187883377,0.360154926776886,-0.15272235870361328,0.333190381526947,-0.07754122465848923,-0.4619601368904114,0.2681519389152527,0.1268676221370697,-0.544247031211853,0.21560804545879364,0.46127957105636597,0.29343676567077637,0.019121482968330383,-0.21875205636024475,-0.20204097032546997,-0.21207237243652344,-0.5171005725860596,0.19718007743358612,-0.16665320098400116,0.651107668876648,-0.12978531420230865,-0.22768166661262512,0.1340240240097046,0.05974858999252319,-0.15503311157226562,-0.5092971324920654,0.33507272601127625,-0.39062193036079407,0.6192067265510559,0.10616204142570496,-0.21748994290828705,0.17808425426483154,-0.11394958198070526,-0.24076756834983826,0.43025708198547363,-0.0586688406765461,0.5966753959655762,-0.22387546300888062,-0.28214892745018005,-0.005344088189303875,0.2353772222995758,-0.11292179673910141,0.6751819849014282,-0.21019425988197327,0.06196385622024536,-0.2021419256925583,0.33741140365600586,0.13465449213981628,-0.11424311995506287,0.15592072904109955,-0.1192021444439888,-0.08984382450580597,-0.17857909202575684,-0.2440294325351715,-0.14397789537906647,0.06617423892021179,0.5242072343826294,-0.546393632888794,-0.3152290880680084,0.11977121233940125,0.3087162375450134,0.1467290222644806,-0.5441195368766785,0.4185548424720764,0.3325214087963104,-0.27003467082977295,-0.0011425837874412537,-0.626414954662323,0.16615082323551178,-0.11025206744670868,-0.25577443838119507,-0.7434419393539429,0.03648824989795685,0.0761808529496193
تقيؤ,0.3346557915210724,-0.48608189821243286,-0.09305080026388168,0.7847605347633362,0.0829169899225235,0.10635761171579361,0.46783995628356934,0.40659910440444946,0.10963217914104462,0.06982608884572983,0.09325698763132095,0.10962603241205215,0.5989421606063843,0.6187155246734619,0.5030023455619812,0.01721002720296383,-0.08735362440347672,-0.6941491961479187,0.09876614063978195,0.29927846789360046,-0.13653075695037842,-0.3824600875377655,-0.3097345232963562,-0.8492143750190735,-0.03242836147546768,0.18401379883289337,0.4757521152496338,0.13960716128349304,-0.41903790831565857,0.478187620639801,-0.06105019152164459,0.18969210982322693,0.26835840940475464,-0.18136291205883026,-0.4567965269088745,-0.03175570070743561,0.19776898622512817,0.35289180278778076,0.25051772594451904,-0.26941537857055664,-0.06599321216344833,0.01674610562622547,-0.600527286529541,-0.24432486295700073,-0.09310726821422577,0.6267584562301636,-0.018590563908219337,0.15666607022285461,-0.04626918584108353,-0.41854745149612427,-0.24020007252693176,-0.33183711767196655,0.4186815619468689,-0.32259419560432434,0.03419317677617073,0.2588854432106018,0.06339332461357117,-0.3914535641670227,-0.3926572799682617,0.09789050370454788,0.825978696346283,-0.2882177531719208,0.2621940076351166,0.12659122049808502,0.07977905869483948,0.09711825102567673,0.3092041313648224,-0.20634832978248596,-0.13187222182750702,0.06671997904777527,0.14889559149742126,-0.24055485427379608,0.4150925576686859,0.7366344332695007,-0.3688262104988098,0.1310441493988037,-0.41563495993614197,0.19024276733398438,0.1730114370584488,0.19767050445079803,-0.2475350946187973,0.4012123942375183,0.6160817742347717,-0.27672797441482544,-0.33783507347106934,0.3932623863220215,0.1479392945766449,0.14759427309036255,-0.08052325248718262,-0.10950127243995667,0.14121432602405548,-0.2010767012834549,0.07933264970779419,-0.6175944805145264,0.39078181982040405,-0.07295001298189163,-0.32771071791648865,-0.894779622554779,0.42039981484413147,0.22537264227867126
ثر انفي,0.4572945833206177,0.19487932324409485,-0.12004630267620087,0.4532319903373718,-0.27923187613487244,0.19489872455596924,0.0429859533905983,0.5386353135108948,-0.3085970878601074,0.21918493509292603,0.021573256701231003,0.018152400851249695,0.18509286642074585,0.19582897424697876,0.45248037576675415,-0.36960896849632263,-0.2522314786911011,0.05206689238548279,-0.16639018058776855,-0.48938071727752686,0.02065272629261017,-0.0797567069530487,-0.2655341923236847,-0.4214450418949127,-0.0594472736120224,-0.07618126273155212,0.07124971598386765,0.3015516400337219,0.152865469455719,-0.08255979418754578,-0.6693001985549927,-0.20216737687587738,0.19767430424690247,-0.062037862837314606,-0.45306527614593506,0.17850349843502045,0.49406948685646057,-0.0010001882910728455,-0.11627987027168274,-0.23309138417243958,0.15848784148693085,-0.07972419261932373,-0.07115019112825394,0.021320387721061707,-0.2917676270008087,0.27262648940086365,0.1545667052268982,-0.037394553422927856,0.15878689289093018,0.21547546982765198,-0.22971966862678528,-0.4992634057998657,0.1101573258638382,0.3181478679180145,-0.027055280283093452,0.10705817490816116,-0.542991042137146,-0.045970529317855835,0.2463265210390091,0.473793625831604,0.19567233324050903,-0.29924649000167847,-0.08062142133712769,-0.20531629025936127,0.18248485028743744,0.18262481689453125,0.16877146065235138,0.40374958515167236,0.32239171862602234,0.32941389083862305,0.04424230754375458,0.1577277034521103,0.019340522587299347,-0.06707523763179779,-0.37769073247909546,-0.1875554919242859,-0.2471504807472229,0.11647320538759232,-0.07727250456809998,-0.06480559706687927,-0.05461511015892029,-0.07321739196777344,0.3810880780220032,-0.05778447538614273,-0.10621233284473419,0.30328598618507385,0.3164343535900116,-0.6489185690879822,-0.18280066549777985,-0.2223411649465561,-0.18425323069095612,-0.24600693583488464,-0.31347835063934326,-0.44780170917510986,-0.21194714307785034,-0.2574169635772705,-0.3269444704055786,0.14044849574565887,0.28211838006973267,-0.08850573003292084
عطاس,0.36589616537094116,0.06858129054307938,-0.12442830950021744,0.283733069896698,0.005124902352690697,-0.298861563205719,-0.26738646626472473,0.8586494326591492,0.3926539421081543,-0.30197930335998535,0.47362521290779114,0.502152144908905,0.043056879192590714,-0.1726117581129074,0.3616792857646942,0.012761329300701618,-0.3850368559360504,-0.6692445278167725,-0.1796906590461731,-0.07606202363967896,0.20966114103794098,0.01244032010436058,-0.7524741888046265,-0.5563614368438721,-0.42195290327072144,-0.10859518498182297,0.30721789598464966,0.4227140545845032,-0.13808315992355347,-0.052503764629364014,0.26701733469963074,-0.021682143211364746,0.05002147704362869,0.1264656037092209,0.023250440135598183,0.029598591849207878,0.19083866477012634,0.06680193543434143,0.08300311118364334,-0.12893667817115784,-0.3236481249332428,0.048687998205423355,-0.6544722318649292,0.23154664039611816,-0.38027065992355347,0.05151663348078728,0.12786155939102173,0.006607171148061752,0.2992832362651825,-0.2021908313035965,-0.5070463418960571,-0.3144682049751282,-0.03568543493747711,-0.6717283129692078,0.6452271342277527,0.5424171090126038,-0.49254778027534485,0.3670186400413513,-0.1240856871008873,0.272441565990448,0.4164283871650696,-0.5652909278869629,-0.15841297805309296,0.0056211440823972225,-0.2585315704345703,-0.3228379786014557,0.09512633830308914,-0.17187829315662384,0.8990248441696167,-0.21151331067085266,0.4632641077041626,-0.31448057293891907,0.39265546202659607,0.4694386124610901,-0.6366008520126343,0.37085577845573425,0.028582144528627396,0.8101629018783569,0.19489362835884094,-0.7364110350608826,-0.8151509165763855,0.20828689634799957,0.28057894110679626,-0.12792494893074036,0.08827248215675354,0.09591253101825714,0.4405182898044586,0.8900735974311829,-0.3535291254520416,-0.18936115503311157,0.3659176826477051,-0.06031065434217453,0.027016475796699524,-0.28235259652137756,0.3865030109882355,-0.09084051102399826,0.07705779373645782,-0.36419177055358887,0.0005551622598432004,-0.026561425998806953
الم عضلي,0.16788753867149353,-0.14371006190776825,-0.4123784899711609,0.1867680847644806,-0.1922129988670349,-0.12421365827322006,0.13647137582302094,0.3936765193939209,0.01260211318731308,-0.3583729863166809,-0.16274304687976837,0.35975170135498047,0.3182002902030945,0.071596160531044,0.19308602809906006,-0.09854766726493835,-0.43054425716400146,-0.578558087348938,0.06502368301153183,-0.11566145718097687,0.3897784650325775,0.2751510739326477,-0.5117035508155823,-0.6062276363372803,-0.0588502436876297,-0.09499283134937286,0.17952661216259003,0.12793056666851044,-0.16398216784000397,0.04451696202158928,-0.27365702390670776,-0.24044707417488098,0.10340102761983871,-0.1994040459394455,-0.4888952672481537,0.43663108348846436,0.13523119688034058,-0.007543133106082678,0.3096504509449005,-0.021923577412962914,-0.21397539973258972,-0.045096106827259064,-0.2509119212627411,0.20479583740234375,0.0041359225288033485,0.2698054313659668,-0.22199596464633942,-0.11421667784452438,0.4960588812828064,-0.3687099814414978,-0.5192809104919434,-0.8885862827301025,0.40118080377578735,0.21787089109420776,0.3465452790260315,0.6213705539703369,-0.3743128478527069,-0.19565050303936005,-0.06671690940856934,-0.06906402111053467,0.14926564693450928,-0.42677852511405945,0.012403570115566254,0.03952939808368683,0.08766434341669083,-0.43995535373687744,0.2326238453388214,0.1518363058567047,0.8527364730834961,-0.1456577628850937,-0.3243330121040344,-0.03937230259180069,0.07524393498897552,0.23178215324878693,-0.375017911195755,-0.23412397503852844,-0.13474032282829285,0.1604616940021515,0.09544534981250763,-0.28562286496162415,-0.001021057367324829,-0.09410059452056885,0.5338405966758728,-0.30730563402175903,-0.4685969650745392,0.6219538450241089,0.29553675651550293,0.09540224075317383,-0.5408331751823425,-0.2562294900417328,0.24557121098041534,-0.15470318496227264,0.16342014074325562,-0.5715180039405823,0.11226077377796173,-0.08709262311458588,-0.04421359300613403,-0.5941303372383118,0.23330016434192657,-0.1825728714466095
اعياء,-0.2514762282371521,0.4679074287414551,-0.03137160465121269,0.6206259727478027,-0.5048397779464722,0.5280693769454956,0.8088627457618713,0.36232826113700867,-0.13290268182754517,-0.04549810662865639,-0.12164467573165894,0.11084999889135361,0.39071953296661377,-0.08163541555404663,1.1638749837875366,-0.5227593779563904,-0.428206205368042,-0.6559627652168274,-0.20967520773410797,0.47255373001098633,0.15767453610897064,-0.040074001997709274,-0.8558782339096069,-0.3929159939289093,0.3715938627719879,-0.44405075907707214,0.2696928381919861,0.631963849067688,-0.7149415612220764,0.3175903558731079,0.7748487591743469,-0.23080438375473022,0.2835439145565033,-0.6450706124305725,-0.10904798656702042,-0.010522554628551006,0.10308676213026047,0.40731552243232727,0.21368993818759918,-0.6532255411148071,1.0297553539276123,-0.6335800290107727,-0.2028031200170517,0.3485642373561859,-0.3315873444080353,0.852897047996521,0.5318566560745239,-0.4003817141056061,-0.09797461330890656,-0.5003600120544434,-0.6896619200706482,-0.8749771118164062,0.2306654453277588,0.03287346661090851,0.31285130977630615,-0.3039504289627075,0.010138957761228085,0.017690835520625114,-0.0997084379196167,-0.10779497772455215,0.48222586512565613,-0.45877304673194885,0.12456484884023666,0.3639625608921051,-0.7409484386444092,-0.024978967383503914,0.6179986000061035,-0.2989465594291687,0.3141413629055023,0.40618181228637695,0.24759086966514587,0.33671680092811584,-0.5413185954093933,-0.023582862690091133,-0.6567392349243164,-0.058699119836091995,0.3452768921852112,0.0841226875782013,0.5568659901618958,-0.21037793159484863,0.021890534088015556,0.5127182602882385,0.278556764125824,-0.30804193019866943,-0.5733627080917358,0.3150033950805664,0.7015373706817627,0.8706081509590149,0.09057117998600006,0.309857577085495,0.5137009024620056,-0.20805500447750092,0.02471972070634365,-0.8579415082931519,0.22716771066188812,-0.20567819476127625,-0.8292741179466248,-0.8025042414665222,-0.06596869230270386,-0.01653466932475567
صداع,0.6745874285697937,0.05931796133518219,-0.22775448858737946,0.04696648567914963,0.13236840069293976,-0.07220281660556793,-0.20344828069210052,0.39464327692985535,0.194039449095726,-0.2131219357252121,0.019827978685498238,0.28771665692329407,0.5238355398178101,0.1884584277868271,0.466764897108078,-0.24801065027713776,-0.5139671564102173,-0.9993381500244141,0.16455113887786865,-0.11668982356786728,0.2627784013748169,-0.1445550173521042,-0.30853956937789917,-0.7022181153297424,-0.07610009610652924,0.04704737290740013,0.24642084538936615,0.38301315903663635,0.1406254768371582,0.004167386796325445,0.02158799208700657,-0.2708863317966461,-0.09004876017570496,-0.044702984392642975,0.05803724005818367,0.35722190141677856,0.5070690512657166,0.2658052146434784,0.5388430953025818,0.06304726749658585,-0.3050435483455658,0.02192823775112629,-0.5106490254402161,0.15396636724472046,-0.007613592315465212,0.40171748399734497,-0.15407752990722656,-0.15911319851875305,0.273785263299942,-0.726813554763794,-0.4399520456790924,-0.7208459377288818,0.2697941064834595,-0.20862941443920135,0.21219664812088013,0.2554119825363159,-0.1813698709011078,0.24209429323673248,0.03323668614029884,0.020063765347003937,0.7084763050079346,-0.4524890184402466,0.23328392207622528,0.0813106819987297,-0.018141642212867737,0.003524976782500744,0.26409122347831726,-0.10212256759405136,0.9577457904815674,-0.0793623998761177,0.21813978254795074,-0.339633047580719,0.07766617089509964,0.2715447247028351,-0.5790477991104126,0.15371550619602203,-0.2710302174091339,0.5764462351799011,0.12951724231243134,-0.2849501371383667,-0.16633014380931854,-0.05498174577951431,0.3450508415699005,-0.16604994237422943,-0.4145587980747223,0.5795036554336548,0.33890771865844727,0.492483913898468,-0.2078707367181778,-0.007258926052600145,0.5464798808097839,0.04914456233382225,0.014741823077201843,-0.2881920337677002,0.5891251564025879,-0.6513484716415405,0.36016711592674255,-0.2818075716495514,-0.023795686662197113,-0.06580516695976257
دموع,0.30862677097320557,0.39792513847351074,0.16396309435367584,-0.18576258420944214,-0.805218517780304,0.2546113431453705,0.17398759722709656,0.653122067451477,-0.710030734539032,-0.04678027331829071,0.19090092182159424,0.4570539891719818,-0.02190280519425869,0.41817915439605713,0.12882234156131744,-0.8432910442352295,-0.23867939412593842,-0.6274634599685669,-0.05023869499564171,-0.07251524180173874,-0.33331596851348877,-0.5389367341995239,-0.3893585801124573,-0.23234286904335022,-0.25229158997535706,-0.1776909977197647,-0.4003717303276062,-0.501270592212677,0.22588448226451874,-0.3229919672012329,-0.0238519124686718,-0.4317100942134857,0.14921508729457855,-0.39973393082618713,-0.2628841996192932,0.2927180230617523,0.3461986482143402,0.199262797832489,0.011318089440464973,0.23205621540546417,0.011266308836638927,-0.4214707314968109,-0.3199077248573303,-0.23999279737472534,-0.24567823112010956,0.44254517555236816,0.30129337310791016,0.4168805778026581,0.031720392405986786,0.14158909022808075,-0.1501755714416504,-0.9853603839874268,0.45954349637031555,0.013934492133557796,0.4682084321975708,0.6297472715377808,-0.5388426184654236,-0.11151468753814697,-0.4750638008117676,-0.06898767501115799,-0.36163413524627686,-0.28439828753471375,-0.2247777283191681,0.5706775188446045,0.061383336782455444,-0.4117288887500763,-0.039794016629457474,0.2402716428041458,0.5765542984008789,0.09015240520238876,-0.17410656809806824,-0.1562081277370453,-0.1344805359840393,-0.11813608556985855,0.19098423421382904,-0.2322293370962143,0.3009040653705597,-0.47241467237472534,-0.03152034804224968,-0.05013171583414078,0.14278078079223633,0.6079614162445068,-0.6151729822158813,0.2199552059173584,-0.6443411707878113,0.4131418764591217,0.21200408041477203,-0.026929564774036407,0.12589560449123383,-0.26594436168670654,0.09197541326284409,0.028386777266860008,0.2500878870487213,-0.8263649344444275,0.36721450090408325,-0.3372877538204193,-0.31844502687454224,-0.3337843716144562,-0.34183502197265625,-0.048218559473752975
تورد,0.15091468393802643,-0.2912388741970062,0.29673662781715393,0.2637748718261719,-0.47742873430252075,-0.11298248916864395,-0.08687642961740494,0.19698670506477356,-0.410795658826828,-0.037697624415159225,0.424879252910614,-0.49301987886428833,-0.3286559283733368,-0.0065445201471447945,0.3728227913379669,-0.14098630845546722,0.18850207328796387,-0.0796818733215332,0.08051543682813644,-0.19490709900856018,-0.48371952772140503,-0.30749598145484924,-0.04097028076648712,-0.37353935837745667,-0.5395528674125671,-0.492439866065979,0.8285541534423828,0.2177550345659256,0.1661940962076187,0.02879042737185955,-0.056447774171829224,-0.4766574800014496,0.6433172821998596,0.25772804021835327,-0.15275126695632935,0.21446317434310913,-0.07066073268651962,0.7248583436012268,0.2575400173664093,0.11649761348962784,0.2143118679523468,-0.07782664895057678,0.2176460474729538,0.21188338100910187,-0.5998049378395081,0.6131619811058044,0.4078577160835266,0.07583364844322205,0.04075445607304573,0.27950266003608704,-0.08575787395238876,-0.5974510312080383,0.1653515249490738,0.361940860748291,0.035909254103899,0.7489453554153442,-0.8336555361747742,-0.15435592830181122,0.17801301181316376,0.44740018248558044,0.18184226751327515,-0.29494011402130127,0.6874285936355591,-0.07795671373605728,-0.8973942995071411,-0.08081948757171631,-0.14220044016838074,0.08727195113897324,0.10067245364189148,-0.511879563331604,0.6522707343101501,0.2593246400356293,-0.06347424536943436,-0.41850006580352783,-0.022174065932631493,-0.5546421408653259,-0.5122610926628113,0.38202551007270813,-0.4371534585952759,-0.08720815181732178,-0.8457047343254089,0.46436062455177307,0.22608259320259094,-0.6283255219459534,0.49099859595298767,0.08961866050958633,-0.2306520640850067,-0.2817176282405853,-0.6227692365646362,0.42184504866600037,-0.22541935741901398,0.2568812966346741,-0.2713887393474579,-0.03530257195234299,0.3277480900287628,-0.07908279448747635,-0.7351577281951904,0.35442858934402466,-0.41137316823005676,0.0672730877995491
حبره,0.2074466347694397,0.238982692360878,0.39011016488075256,0.3215644061565399,-0.20873428881168365,0.20604091882705688,-0.018372181802988052,0.3356935679912567,-0.6059786677360535,0.09502538293600082,-0.18391644954681396,-0.13255949318408966,-0.049057699739933014,0.0846632719039917,0.24993015825748444,-0.6928128600120544,0.32665205001831055,-0.41675978899002075,0.4805179238319397,-0.020195741206407547,0.30253657698631287,-0.38578274846076965,-0.09834840148687363,-0.809282124042511,-0.4226791560649872,-0.16971951723098755,0.1663929969072342,0.4286080300807953,0.31717804074287415,-0.024256691336631775,0.04503198713064194,-0.10931365191936493,-0.041200023144483566,-0.11670377105474472,0.054824501276016235,0.4193646311759949,0.5114220380783081,-0.036231424659490585,0.4087428152561188,0.09616801887750626,0.05696083977818489,0.35933783650398254,-0.34625402092933655,0.05869648978114128,0.03357045352458954,0.29560336470603943,0.6481741666793823,-0.222312331199646,-0.20689904689788818,0.19288210570812225,-0.17092089354991913,-0.2367202490568161,0.01672433875501156,0.32054245471954346,0.45520225167274475,1.2357405424118042,-0.5715306401252747,0.12838050723075867,0.10196962207555771,0.2591727077960968,0.16553440690040588,-0.19715426862239838,0.046056829392910004,0.4371482729911804,-0.07603166997432709,-0.34017786383628845,0.2055502086877823,-0.3062969744205475,0.00791738461703062,-0.2227272391319275,0.42993399500846863,1.1718535423278809,0.5531603097915649,-0.15663568675518036,-0.10183803737163544,-0.5095855593681335,0.3845577538013458,-0.2939770817756653,0.4732808470726013,0.1581496149301529,-0.3568836450576782,-0.16685068607330322,0.4997830092906952,-0.3440794348716736,-0.5854097008705139,0.15082800388336182,0.8707854747772217,-0.43326276540756226,0.010784081183373928,-0.7102640271186829,0.09955868124961853,0.2504596710205078,-0.08297263830900192,-0.4749501645565033,-0.12999428808689117,-0.2869568467140198,-0.7338797450065613,0.06794539839029312,-0.09272169321775436,-0.47598981857299805
تعب وارهاق,0.3320767879486084,-0.047835156321525574,0.19131694734096527,-0.25304925441741943,-0.13011130690574646,0.10056459903717041,-0.48599162697792053,0.4464598298072815,-0.07364146411418915,0.19542229175567627,-0.21787694096565247,-0.06599682569503784,0.9055988192558289,-0.2066999226808548,0.5877705812454224,-0.17531128227710724,-0.2275921106338501,-0.5697008371353149,0.366715669631958,-0.5656324625015259,0.3408429026603699,-0.29687902331352234,-0.6092022657394409,-0.1187460869550705,-0.21648435294628143,-0.23597092926502228,0.5129105448722839,0.533320426940918,0.13751395046710968,0.10742755234241486,0.24879547953605652,-0.5662754774093628,0.15964685380458832,-0.013097350485622883,0.19589130580425262,-0.05503535643219948,-0.20028795301914215,0.017267771065235138,0.5525425672531128,0.3345009684562683,-0.1503041386604309,0.08516094088554382,-0.6530378460884094,-0.17751726508140564,-0.3247372508049011,0.4888868033885956,0.49761760234832764,-0.2196306586265564,0.025355106219649315,-0.7161370515823364,0.03267568349838257,-1.0207316875457764,0.6895001530647278,0.3545721769332886,0.42780601978302,-0.028141960501670837,-0.3066011965274811,-0.4967959225177765,-0.059651657938957214,-0.24557065963745117,0.31087878346443176,0.02812778949737549,-0.06782819330692291,0.368424654006958,0.4864567220211029,-0.1681216061115265,0.057844746857881546,0.1705886423587799,0.4674893617630005,0.2798192799091339,-0.11489434540271759,-0.32115083932876587,0.29514551162719727,0.10127797722816467,-0.7915850877761841,-0.32934173941612244,-0.2706534266471863,-0.07452458143234253,-0.09075865149497986,0.15664495527744293,-0.04670419171452522,0.2510298788547516,0.05965554714202881,-0.4933387041091919,0.31170588731765747,0.14483299851417542,0.31310540437698364,0.8140883445739746,-0.5636783838272095,-0.21258530020713806,0.6642078757286072,-0.12398546189069748,-0.10359038412570953,-0.9790043830871582,0.34273093938827515,-0.004142880439758301,-0.23065203428268433,-0.4272661805152893,-0.19003455340862274,-0.3292446732521057
رعاش,0.10883073508739471,0.5522915124893188,-0.09821396321058273,0.3209458887577057,0.37756669521331787,-0.12094938009977341,-0.39675748348236084,0.3921142518520355,0.19094441831111908,-0.540283203125,0.38675132393836975,0.43950650095939636,0.45927348732948303,0.42334651947021484,0.024572821334004402,-0.09857676923274994,-0.20154708623886108,-0.93353271484375,0.15019935369491577,-0.059751808643341064,0.47534477710723877,0.32939913868904114,-0.4842994213104248,-1.169933557510376,-0.20451213419437408,-0.0615890696644783,0.0412147082388401,0.7306865453720093,-0.10826226323843002,-0.533965528011322,0.03724442794919014,0.23035559058189392,-0.21261394023895264,-0.7366265654563904,0.14569780230522156,0.1734052449464798,0.353589802980423,0.19996890425682068,0.6564909815788269,-0.06310389190912247,0.13458114862442017,0.14628055691719055,-0.6250371932983398,0.9595934748649597,-0.1501377373933792,0.43744733929634094,0.10217791050672531,-0.14615125954151154,0.4281744956970215,-0.5943814516067505,-0.4644348919391632,-0.2714400291442871,-0.0646861270070076,-0.06956514716148376,0.20825643837451935,-0.11749047040939331,-0.33558088541030884,0.5641083121299744,-0.07339752465486526,0.06969350576400757,0.7861278057098389,-0.18032008409500122,0.027846546843647957,-0.4237022399902344,-0.12980589270591736,-0.17270444333553314,0.2808164060115814,0.0076163471676409245,-0.002407684223726392,-0.07108429819345474,-0.03735677897930145,0.2537745237350464,0.2362770438194275,0.4380951523780823,-0.13594721257686615,-0.2724335491657257,-0.7137243151664734,-0.1423986256122589,0.174268901348114,-0.2572629451751709,-0.052640825510025024,0.4799013137817383,0.0226612389087677,0.04573502391576767,-0.8019489645957947,0.4119483530521393,0.3449001610279083,0.4185065031051636,0.3381597697734833,-0.5192615985870361,0.20762427151203156,-0.4274877905845642,0.6672389507293701,-0.8041882514953613,0.352434903383255,0.04153915494680405,0.005809989757835865,-0.2987052798271179,-0.49146443605422974,0.33894193172454834
زياده الشهيه,0.17361515760421753,0.19605621695518494,-0.20649448037147522,0.4706093668937683,-0.563745379447937,-0.029692962765693665,-0.20758137106895447,0.717635989189148,0.47623211145401,0.31247401237487793,-0.0024273470044136047,-0.20518681406974792,0.5314896106719971,0.31268802285194397,0.5227285623550415,-0.34290382266044617,0.21063296496868134,-0.22261890769004822,-0.2308734655380249,-0.6998611688613892,0.23698942363262177,0.7500905990600586,-0.44980791211128235,-0.060790035873651505,-0.3583843410015106,0.34189826250076294,0.9502878189086914,-0.09123539924621582,-0.1732451170682907,-0.29637807607650757,-0.22393912076950073,0.2162943035364151,-0.4325566589832306,0.2512076199054718,-0.5166710615158081,0.2967774569988251,0.17194528877735138,0.7454841136932373,0.19769226014614105,0.12577931582927704,-0.20788520574569702,-0.30666059255599976,-0.15006056427955627,-0.04121353477239609,-0.1945984810590744,0.7134439945220947,0.2898992896080017,0.5092261433601379,-0.14085407555103302,-0.7663171291351318,-0.35455819964408875,-0.14512373507022858,0.6563054919242859,0.6556908488273621,0.2175988405942917,0.0915922224521637,0.06799778342247009,0.12537290155887604,-0.36569178104400635,0.07605968415737152,0.5623217821121216,-0.2153794914484024,0.21760162711143494,-0.9315764904022217,-0.02161352150142193,0.21152867376804352,0.2616152763366699,-0.271774023771286,0.5280035138130188,-0.29210275411605835,0.4235638976097107,-0.36173760890960693,0.2131565511226654,0.4342295229434967,-0.20254026353359222,-0.10528676211833954,-0.06978205591440201,0.07719021290540695,0.4054398834705353,-0.1255822628736496,-0.003106888383626938,-0.10049033164978027,0.40026405453681946,-0.23075246810913086,0.5540614724159241,-0.4052051305770874,0.25818002223968506,0.06730268895626068,-0.2883017659187317,-0.522072970867157,0.15955033898353577,0.08177052438259125,-0.5302852392196655,-0.45282846689224243,0.3748971223831177,-0.12127505987882614,-0.49348488450050354,-0.3367273509502411,0.3945295810699463,-0.6377152800559998
سرعه الانفعال,-0.06953052431344986,0.04285941645503044,-0.22772520780563354,0.5169695019721985,0.2733699083328247,0.2854929566383362,0.3729900121688843,0.6612650156021118,0.09882745146751404,-0.1997518688440323,0.007400115020573139,-0.06778812408447266,0.45974963903427124,0.3506181836128235,0.10954047739505768,0.03115144371986389,-0.3488283157348633,-0.27697935700416565,0.0738404393196106,-0.15435266494750977,-0.20261310040950775,0.3126582205295563,-0.8427932262420654,-0.37985724210739136,0.13592860102653503,0.5619657039642334,0.15246042609214783,0.18627166748046875,-0.5045326948165894,-0.41042560338974,-0.47190526127815247,0.20176273584365845,0.13131462037563324,0.3214060962200165,-0.45788824558258057,0.25292569398880005,-0.15912413597106934,0.617480456829071,0.576520562171936,0.26653170585632324,0.1749156415462494,0.5785849094390869,-0.36661750078201294,0.2544841170310974,-0.829664945602417,0.34188753366470337,0.21765846014022827,-0.037117742002010345,-0.20138800144195557,0.15507224202156067,0.5059623718261719,-0.1058943122625351,0.7919443249702454,-0.04358344152569771,0.404601514339447,0.01887347921729088,0.2151212990283966,-0.17846471071243286,0.1913948506116867,-0.04268348962068558,0.43836283683776855,-0.208022803068161,0.055330097675323486,-0.05533241480588913,-0.008272181265056133,0.04544450342655182,0.04730869084596634,0.0024115517735481262,0.01929742470383644,-0.14858059585094452,-0.11402326822280884,-0.12893834710121155,0.432321697473526,0.29212379455566406,-0.25050824880599976,0.13509170711040497,-0.14067715406417847,0.41477641463279724,-0.31222254037857056,-0.08531859517097473,-0.11091296374797821,0.07744614779949188,0.23102498054504395,0.017977874726057053,-0.18951691687107086,0.03788299858570099,0.8041129112243652,0.41559839248657227,-0.180385559797287,-0.41277453303337097,0.5617585182189941,-0.4527263641357422,-0.2522386908531189,-0.2013600468635559,0.19519825279712677,0.26237696409225464,-0.3261861801147461,-0.24051466584205627,0.18741367757320404,-0.03710705786943436
عدم تحمل الحراره,0.15341761708259583,-0.14157813787460327,-0.37721869349479675,0.3835941553115845,0.04120970889925957,0.2793658673763275,0.23574358224868774,0.3443317115306854,-0.010686595924198627,0.040058381855487823,-0.045123618096113205,-0.046616483479738235,0.4197746813297272,0.35447537899017334,0.33312299847602844,-0.0982649102807045,-0.22377967834472656,-0.13314718008041382,0.1812039166688919,0.10637504607439041,-0.07814844697713852,-0.26678383350372314,-0.6908023953437805,-0.31898030638694763,0.11614535003900528,-0.01641680859029293,0.4270472228527069,0.02347174473106861,-0.14282037317752838,-0.01005207747220993,-0.3987543284893036,-0.021776100620627403,-0.14683307707309723,0.3299829661846161,-0.4074777066707611,0.1742391437292099,0.260606974363327,0.4350531995296478,0.08163487166166306,0.3235929310321808,0.0775701105594635,-0.03916783258318901,-0.11980827897787094,0.14092276990413666,-0.28779011964797974,0.4559159278869629,0.3318212032318115,0.24135486781597137,-0.1399281919002533,-0.16371843218803406,-0.4023928940296173,-0.026058798655867577,0.46770238876342773,0.21132104098796844,0.20676420629024506,-0.2214851826429367,-0.13069629669189453,-0.19833512604236603,0.33315274119377136,-0.2905760109424591,0.4359501302242279,-0.1653318852186203,0.44576990604400635,-0.016797497868537903,0.15254724025726318,-0.03923751041293144,0.38080283999443054,0.13587339222431183,0.018209150061011314,0.03706373646855354,-0.1438576579093933,-0.018139353021979332,-0.05703073367476463,0.10763148218393326,-0.47858667373657227,-0.05553653836250305,-0.17406004667282104,0.07599418610334396,0.09877464920282364,-0.3659566342830658,-0.08742091804742813,0.44090428948402405,0.17954714596271515,0.20349647104740143,-0.27296698093414307,-0.06779602915048599,0.1961735039949417,0.4183853566646576,-0.03175470232963562,-0.17602960765361786,0.059108007699251175,0.08713405579328537,-0.2543957531452179,-0.7174878716468811,0.20610129833221436,0.11584080010652542,0.10108992457389832,-0.35429975390434265,-0.04163052514195442,0.12737025320529938
انخفاض الوزن,0.09250867366790771,0.16235817968845367,-0.24447304010391235,0.5475886464118958,0.24791501462459564,0.1805274784564972,0.03468087688088417,0.503887414932251,0.22310341894626617,0.04589454457163811,-0.06585408002138138,-0.0032438859343528748,0.45438629388809204,-0.06636465340852737,0.2507864534854889,-0.19974520802497864,0.0969170331954956,0.030704926699399948,0.13069455325603485,-0.30014294385910034,-0.07852119207382202,0.228631854057312,-0.8954463005065918,-0.2493947446346283,0.014332622289657593,0.2820897102355957,0.5462133884429932,-0.3131842315196991,-0.634422779083252,-0.11318519711494446,-0.2980843782424927,0.17289675772190094,-0.14633435010910034,0.4279804527759552,-0.42233264446258545,0.43016910552978516,0.46676790714263916,0.5633695125579834,0.34296321868896484,0.00019579753279685974,-0.39595916867256165,-0.2958213686943054,-0.6806715726852417,0.06855487823486328,-0.391299307346344,0.46531355381011963,0.18715347349643707,0.38973355293273926,-0.26359909772872925,-0.17934367060661316,-0.7209219932556152,-0.24846497178077698,0.3753781020641327,0.42736056447029114,0.3501232862472534,0.013389304280281067,0.08518795669078827,-0.09757108986377716,0.33158889412879944,-0.5439537763595581,0.5346479415893555,-0.32290345430374146,0.6855897903442383,-0.7273880243301392,0.10639476776123047,0.1817508488893509,0.06396445631980896,-0.1146344467997551,0.10636209696531296,-0.3078416585922241,0.46435225009918213,0.11619478464126587,0.02068219892680645,0.12615501880645752,-0.43681350350379944,-0.12142685055732727,0.18693582713603973,0.05887001007795334,0.1775672733783722,-0.42512068152427673,-0.05477065593004227,0.2527550458908081,0.597374439239502,-0.1664322018623352,-0.18454451858997345,-0.13305377960205078,0.8658119440078735,0.4777829051017761,-0.29065605998039246,-0.22352565824985504,0.2261887788772583,-0.22046101093292236,-0.37561461329460144,-1.1474473476409912,0.360947847366333,0.37428003549575806,-0.576736569404602,-0.812159538269043,0.11605723947286606,0.21770079433918
تعب وارهاق,0.3320767879486084,-0.047835156321525574,0.19131694734096527,-0.25304925441741943,-0.13011130690574646,0.10056459903717041,-0.48599162697792053,0.4464598298072815,-0.07364146411418915,0.19542229175567627,-0.21787694096565247,-0.06599682569503784,0.9055988192558289,-0.2066999226808548,0.5877705812454224,-0.17531128227710724,-0.2275921106338501,-0.5697008371353149,0.366715669631958,-0.5656324625015259,0.3408429026603699,-0.29687902331352234,-0.6092022657394409,-0.1187460869550705,-0.21648435294628143,-0.23597092926502228,0.5129105448722839,0.533320426940918,0.13751395046710968,0.10742755234241486,0.24879547953605652,-0.5662754774093628,0.15964685380458832,-0.013097350485622883,0.19589130580425262,-0.05503535643219948,-0.20028795301914215,0.017267771065235138,0.5525425672531128,0.3345009684562683,-0.1503041386604309,0.08516094088554382,-0.6530378460884094,-0.17751726508140564,-0.3247372508049011,0.4888868033885956,0.49761760234832764,-0.2196306586265564,0.025355106219649315,-0.7161370515823364,0.03267568349838257,-1.0207316875457764,0.6895001530647278,0.3545721769332886,0.42780601978302,-0.028141960501670837,-0.3066011965274811,-0.4967959225177765,-0.059651657938957214,-0.24557065963745117,0.31087878346443176,0.02812778949737549,-0.06782819330692291,0.368424654006958,0.4864567220211029,-0.1681216061115265,0.057844746857881546,0.1705886423587799,0.4674893617630005,0.2798192799091339,-0.11489434540271759,-0.32115083932876587,0.29514551162719727,0.10127797722816467,-0.7915850877761841,-0.32934173941612244,-0.2706534266471863,-0.07452458143234253,-0.09075865149497986,0.15664495527744293,-0.04670419171452522,0.2510298788547516,0.05965554714202881,-0.4933387041091919,0.31170588731765747,0.14483299851417542,0.31310540437698364,0.8140883445739746,-0.5636783838272095,-0.21258530020713806,0.6642078757286072,-0.12398546189069748,-0.10359038412570953,-0.9790043830871582,0.34273093938827515,-0.004142880439758301,-0.23065203428268433,-0.4272661805152893,-0.19003455340862274,-0.3292446732521057
ارتفاع ضربات القلب,-0.06291213631629944,0.18405742943286896,-0.06809882074594498,0.5928086638450623,-0.005286160856485367,0.05707995966076851,-0.0054247453808784485,0.3385962247848511,0.011551052331924438,-0.46692022681236267,-0.021929115056991577,-0.054969578981399536,0.49148333072662354,0.10653653740882874,-0.06892101466655731,-0.1831377148628235,-0.15220782160758972,-0.20349295437335968,0.1948479861021042,-0.15062136948108673,-0.32833394408226013,0.22186052799224854,-0.6385318040847778,-0.1492268592119217,0.01708320714533329,-0.25952407717704773,0.18810875713825226,-0.004747793078422546,-0.04547877982258797,-0.20795197784900665,-0.05890568718314171,0.009760151617228985,0.21338874101638794,0.24506866931915283,-0.825082004070282,0.1675531268119812,0.4736052453517914,0.6410126686096191,0.3396138846874237,0.4696921408176422,-0.09171056747436523,-0.006655519362539053,-0.3061218857765198,0.4481782913208008,-0.3903578817844391,0.2925719916820526,0.2183685302734375,0.2083091139793396,-0.1994468718767166,0.008632938377559185,-0.35308751463890076,-0.26875433325767517,0.41053107380867004,0.33081790804862976,0.35482335090637207,0.10871448367834091,-0.4415586292743683,-0.16313372552394867,0.040363859385252,-0.21792101860046387,0.6078757047653198,-0.09471445530653,0.1332331746816635,0.008119340054690838,0.09387824684381485,0.12908430397510529,-0.08318787068128586,0.23931175470352173,0.04877230525016785,-0.32706359028816223,-0.06143730878829956,-0.05878421664237976,0.15514272451400757,0.10694032907485962,-0.2834266126155853,0.2145276814699173,-0.3069394528865814,0.11556140333414078,0.2522363066673279,-0.003682653186842799,-0.07214852422475815,0.40454158186912537,0.148625448346138,-0.5224885940551758,-0.33396315574645996,0.22482283413410187,0.23891901969909668,0.3486200273036957,-0.258326917886734,0.007531424518674612,0.1164793074131012,-0.15405166149139404,0.025880252942442894,-0.6417321562767029,-0.00042551755905151367,-0.08914794772863388,-0.2602929174900055,-0.5640080571174622,0.07655323296785355,-0.14785580337047577
اضطرابات النوم,0.3620333671569824,-0.2433117926120758,-0.14097630977630615,0.195887953042984,-0.15888233482837677,0.02707863412797451,0.422676682472229,0.30736660957336426,-0.054243773221969604,-0.4006904363632202,0.1446111798286438,0.04910074919462204,0.8582085371017456,0.31893667578697205,0.3555159270763397,-0.3525487780570984,-0.4013902544975281,-0.8612632155418396,-0.20584514737129211,0.19612780213356018,0.020618092268705368,0.10060280561447144,-0.3099989593029022,-0.13229604065418243,-0.20296010375022888,0.29351842403411865,0.1208813413977623,0.059413157403469086,-0.04576396942138672,0.14318260550498962,-0.08945967257022858,0.07100312411785126,-0.15319004654884338,0.12262889742851257,-0.3489576578140259,0.1428585797548294,-0.11639213562011719,0.30901166796684265,0.4222555160522461,0.07208044826984406,-0.3273918032646179,-0.20062851905822754,-0.48770254850387573,0.3578425645828247,-0.023936375975608826,0.48276638984680176,-0.04614853113889694,-0.2721844017505646,0.1737314760684967,-0.6317225098609924,-0.5007866024971008,-0.5346491932868958,0.0006382260471582413,0.07518516480922699,0.5304353833198547,0.4382078945636749,-0.2641744017601013,-0.06035937741398811,0.2761189937591553,-0.20173704624176025,0.7828599810600281,-0.12221357226371765,0.3088921010494232,-0.1394054889678955,0.2960372269153595,0.24901580810546875,0.34773731231689453,0.11380679905414581,0.2974715828895569,-0.16387179493904114,0.12916016578674316,0.07326675951480865,0.2591322362422943,0.16856235265731812,-0.3224140405654907,0.031129147857427597,0.08789270371198654,0.2377042919397354,-0.29369544982910156,0.3413648009300232,0.4201536774635315,0.027088895440101624,0.15377485752105713,-0.05366586148738861,-0.1695241779088974,0.33953195810317993,0.20937375724315643,0.9054638147354126,-0.2210206538438797,-0.04575062543153763,0.6235764026641846,-0.0762217789888382,-0.22299371659755707,-0.33421972393989563,0.2830356955528259,-0.112335704267025,0.20550155639648438,-0.4483235478401184,0.15802481770515442,0.3474824130535126
قلق وتوتر,0.5679700374603271,-0.20984508097171783,-0.42394059896469116,0.15583506226539612,-0.14912140369415283,0.021422214806079865,-0.056982673704624176,0.3488598167896271,0.484394907951355,0.001862495206296444,0.027798866853117943,0.3400358259677887,0.7632182240486145,0.06094865873456001,0.440385103225708,-0.37119829654693604,-0.8522193431854248,-0.2612241804599762,0.10805065929889679,-0.01010960340499878,0.15480297803878784,0.11366613954305649,-0.8436954617500305,0.12351491302251816,0.17117522656917572,-0.04753725975751877,-0.21509812772274017,0.18447576463222504,0.03142968565225601,0.37117886543273926,0.252400279045105,-0.35252103209495544,0.007364988327026367,0.21618492901325226,-0.27006056904792786,0.5845364332199097,-0.0826757401227951,0.2664969563484192,0.5354045629501343,-0.05004313960671425,0.35306185483932495,-0.12965644896030426,-0.7110188007354736,0.09240611642599106,-0.13403259217739105,0.3057743012905121,0.43190473318099976,0.03598647564649582,0.1846618503332138,-0.4700976610183716,-0.22872330248355865,-0.5233071446418762,0.38170984387397766,0.06617619842290878,0.3527778089046478,-0.2789793610572815,-0.31730595231056213,-0.3484675884246826,0.14394158124923706,0.45722395181655884,0.7384648323059082,0.210902139544487,0.27547043561935425,0.21253739297389984,0.08789435029029846,-0.4063854217529297,0.3696134686470032,0.18479858338832855,0.44029536843299866,-0.5242151021957397,0.13442790508270264,-0.25434136390686035,0.11848410964012146,0.5032749772071838,-0.29731106758117676,0.3856247067451477,-0.09490600973367691,0.3712432086467743,-0.14142052829265594,-0.10792951285839081,0.2230817675590515,-0.005538869649171829,0.3812389671802521,0.026750005781650543,-0.0914478749036789,0.09632761776447296,-0.13431890308856964,0.30234676599502563,-0.3741588294506073,-0.09270494431257248,0.3670536279678345,-0.11475511640310287,0.06933408975601196,-0.6484633684158325,0.49586886167526245,-0.33503061532974243,-0.097089983522892,-0.10428638756275177,-0.017353568226099014,-0.07896644622087479
ضعف القدره علي التركيز,-0.015442028641700745,-0.008933193050324917,0.059776078909635544,0.38161933422088623,-0.06170008331537247,-0.05569131672382355,0.3069332242012024,0.4470716416835785,0.14207640290260315,-0.002179078757762909,0.010508783161640167,0.1496599018573761,0.49464941024780273,0.19482077658176422,0.3863665461540222,-0.152603417634964,-0.4096294343471527,0.03543921187520027,0.0013987869024276733,-0.18540000915527344,-0.20537200570106506,0.13136538863182068,-0.4235265851020813,-0.4222031533718109,-0.383843332529068,0.24587544798851013,0.8003534078598022,0.23694272339344025,0.10226374119520187,-0.2849794924259186,-0.3488296866416931,0.22463487088680267,-0.021247074007987976,0.13530132174491882,-0.4084540009498596,0.0580013133585453,-0.031742826104164124,0.5074271559715271,0.24604052305221558,0.24222493171691895,0.08451689779758453,0.16524344682693481,-0.20737415552139282,0.27211689949035645,-0.14843153953552246,0.47500914335250854,0.13270266354084015,0.3504146635532379,0.03173437714576721,-0.3141142427921295,-0.04812292754650116,-0.6945228576660156,0.3081899881362915,0.1312892884016037,-0.00039255619049072266,-0.07378000020980835,0.01864737644791603,-0.2794111371040344,-0.15920767188072205,-0.34465861320495605,0.19659599661827087,0.11794596165418625,0.371694952249527,0.19185513257980347,0.3303183317184448,-0.0006609868723899126,0.24092629551887512,-0.010361213237047195,-0.10972416400909424,-0.08818212151527405,-0.17999108135700226,0.0823308527469635,0.036931686103343964,0.0053782835602760315,-0.321964830160141,-0.008703945204615593,-0.05617804080247879,-0.029965367168188095,0.03329932689666748,-0.38060909509658813,-0.07003554701805115,-0.034583959728479385,0.1871897131204605,0.27202096581459045,-0.11914920061826706,-0.18651680648326874,-0.03805481642484665,0.3561782240867615,0.12044170498847961,-0.4449947476387024,0.30197960138320923,-0.2743387222290039,-0.3254198431968689,-0.561830461025238,0.14660704135894775,-0.2011607587337494,0.055261217057704926,-0.15621954202651978,-0.05119825899600983,0.017785977572202682
صعوبه في اداء التمرينات الرياضيه,0.4042200446128845,-0.2853648364543915,0.23391780257225037,0.2024630606174469,0.1714593917131424,-0.009461373090744019,0.20649650692939758,0.3516184091567993,-0.01869196631014347,-0.3339780569076538,0.042075324803590775,0.32552704215049744,0.3215748369693756,0.35304826498031616,0.14578048884868622,-0.17303363978862762,-0.07517776638269424,-0.2523161470890045,-0.09860656410455704,-0.22794440388679504,-0.006466770078986883,0.1873786747455597,-0.628622829914093,-0.17125174403190613,-0.07431179285049438,0.18363162875175476,0.2852916121482849,0.16066117584705353,-0.07347245514392853,0.1625245362520218,-0.5041910409927368,0.056107185781002045,-0.08011643588542938,0.15941764414310455,-0.21221277117729187,-0.15941476821899414,-0.08144696056842804,0.31268778443336487,0.03334994986653328,0.43509402871131897,-0.1940286010503769,0.4745821952819824,-0.57158362865448,0.4191836416721344,-0.04979202151298523,0.571672260761261,0.2600710093975067,0.24626770615577698,0.07347434759140015,-0.01892312988638878,0.06708496809005737,-0.27267688512802124,0.3352257013320923,0.2484445571899414,0.296804279088974,0.34156137704849243,-0.19281679391860962,-0.2099514752626419,0.015385324135422707,-0.5532498359680176,0.21127386391162872,-0.018014494329690933,0.47550877928733826,-0.018970191478729248,0.2026597559452057,-0.02419118583202362,-0.07217814028263092,0.23257215321063995,0.29032325744628906,-0.2342122495174408,0.3587556481361389,-0.015219980850815773,-0.0796629935503006,0.014238931238651276,-0.05419979616999626,0.2315017282962799,-0.2103663980960846,-0.072877898812294,0.010671520605683327,-0.290105402469635,0.4347134232521057,-0.10682898759841919,-0.07431680709123611,-0.3001682162284851,-0.1411980539560318,-0.07196220755577087,0.3139384686946869,0.6656801700592041,-0.17337624728679657,0.0753764659166336,0.32072368264198303,-0.13047540187835693,-0.21694457530975342,-0.5236313343048096,0.11476844549179077,-0.16150149703025818,-0.24632099270820618,-0.37956303358078003,0.22615429759025574,0.3753024637699127
جفاف الجلد,0.14454342424869537,0.007133364677429199,-0.0824066549539566,0.3808829188346863,-0.09891451895236969,0.011908195912837982,-0.3719610869884491,0.6122347712516785,-0.3001287281513214,0.14564597606658936,-0.3335144817829132,-0.11032196134328842,0.3003762662410736,-0.24500708281993866,0.44817933440208435,-0.25409016013145447,0.09837708622217178,-0.7687361240386963,0.018007755279541016,-0.18324774503707886,0.20604273676872253,0.02484375610947609,-0.3109723925590515,-0.788882851600647,-0.20523853600025177,0.2094002217054367,0.23361709713935852,0.03688104450702667,-0.2186463624238968,0.17220699787139893,-0.20181548595428467,-0.13694965839385986,-0.15931835770606995,0.053455762565135956,-0.5664515495300293,0.11789809167385101,0.19413810968399048,0.3233969807624817,0.248070627450943,0.04531492292881012,0.10108020901679993,-0.24509049952030182,-0.5726052522659302,0.27975600957870483,-0.042710766196250916,0.7110695838928223,0.2880038917064667,-0.15093299746513367,-0.04957600310444832,0.2561156451702118,-0.17387661337852478,-0.3849102258682251,0.24741114675998688,0.2510637044906616,0.15943485498428345,0.15470825135707855,-0.10334644466638565,-0.07026870548725128,-0.039714422076940536,-0.4277031719684601,0.2820751965045929,-0.40851694345474243,0.1125265508890152,0.1775737851858139,0.012665238231420517,-0.07844693213701248,0.23772156238555908,-0.0833272784948349,0.2929649353027344,-0.20839007198810577,0.17265954613685608,0.046968504786491394,0.25891342759132385,-0.09503699094057083,-0.12572398781776428,-0.39978912472724915,0.27160874009132385,0.27696162462234497,0.03350840508937836,-0.19605007767677307,0.03218400478363037,0.36471498012542725,0.2901618778705597,-0.4510863423347473,0.005876531824469566,0.05120839923620224,0.8490067720413208,0.24953192472457886,-0.3149299621582031,-0.13790225982666016,-0.060289740562438965,0.1813879758119583,0.161576509475708,-0.3761586844921112,0.274300217628479,0.03349306061863899,-0.43290945887565613,-0.8568263053894043,-0.050536561757326126,0.01394689828157425
اكتئاب,0.6591896414756775,0.07246454805135727,-0.6694227457046509,-0.019342701882123947,-0.1352367401123047,0.5983336567878723,-0.10238863527774811,0.3640289604663849,0.23708395659923553,0.07225912809371948,0.36376333236694336,0.5202645659446716,0.3336666524410248,0.4743119776248932,0.34924954175949097,-0.2665000259876251,-0.5286803245544434,-1.0787931680679321,-0.19294710457324982,-0.2120610624551773,0.5342434048652649,-0.3318302035331726,-0.45764949917793274,-0.5365733504295349,0.2479831725358963,0.4371052384376526,0.7933676838874817,0.5806845426559448,-0.41186919808387756,0.3229285478591919,0.22291556000709534,0.14595739543437958,-0.9019861221313477,-0.586863100528717,-0.20693852007389069,0.13187450170516968,0.221279576420784,0.45117032527923584,0.7476878762245178,0.22269059717655182,0.14660827815532684,0.06722455471754074,-0.8510146141052246,0.06598947197198868,0.0032811600249260664,0.11896108835935593,0.11793211102485657,0.044818215072155,0.11971992254257202,-0.3867953419685364,-0.6313970685005188,-0.843274712562561,0.22904027998447418,-0.07256117463111877,-0.09147875010967255,-0.21554288268089294,-0.18145085871219635,0.11697442084550858,0.18851593136787415,0.20089007914066315,0.8706978559494019,0.18790705502033234,-0.05472573637962341,0.00582543108612299,-0.10307919979095459,-0.16729304194450378,-0.050298430025577545,0.1998717486858368,0.5431808233261108,0.036306362599134445,0.28479939699172974,-0.4209243059158325,0.3543581962585449,0.40222278237342834,-0.4548632800579071,0.204381063580513,-0.11662235856056213,0.7059458494186401,-0.43294042348861694,-0.01733267866075039,0.1054636761546135,0.32783523201942444,0.14155785739421844,0.08273444324731827,-0.19245252013206482,-0.0030145347118377686,-0.044422637671232224,0.05018073320388794,0.11843293160200119,0.12428846955299377,0.7187181711196899,-0.01909983530640602,-0.014300067909061909,-0.5220965147018433,0.5496078729629517,-0.4184514582157135,-0.14692886173725128,-0.5434266924858093,0.5825099945068359,-0.18397244811058044
امساك,-0.11032082885503769,0.18915411829948425,-0.6300401091575623,0.5797444581985474,-0.06681546568870544,0.36618345975875854,0.17756828665733337,0.2474559098482132,-0.1987701654434204,-0.5276288390159607,-0.2610776424407959,0.07135795801877975,0.5305396914482117,-0.05772119387984276,0.2855224907398224,-0.06977944076061249,-0.13471448421478271,-0.5765120983123779,-0.09157590568065643,0.08957763761281967,0.3653125464916229,0.4424426257610321,0.11237646639347076,-0.6796236634254456,-0.18444430828094482,-0.28726261854171753,0.3822147846221924,0.6328102350234985,-0.289211243391037,0.34652721881866455,-0.11105944961309433,-0.05565055087208748,0.17760628461837769,0.6717867255210876,-0.38707396388053894,0.13740216195583344,0.08234129846096039,0.3611259162425995,0.7216088175773621,0.40027016401290894,-0.4165344536304474,0.30160582065582275,-0.17688895761966705,0.031612519174814224,-0.055322714149951935,0.4064992666244507,-0.20630119740962982,-0.24592886865139008,0.5252182483673096,0.1846155971288681,-0.2428291290998459,-0.001935487613081932,0.44630691409111023,-0.346546471118927,0.6855852603912354,0.4229837954044342,-0.020747603848576546,0.058672692626714706,-0.15500439703464508,0.1658475548028946,0.2614508271217346,-0.3685441017150879,0.36892783641815186,-0.3234238028526306,-0.26565825939178467,-0.08540870994329453,0.2286311835050583,0.4714452922344208,0.3425373136997223,-0.1732872724533081,-0.267535001039505,-0.5782329440116882,0.20885826647281647,-0.0755242258310318,-0.4610567092895508,-0.2017345279455185,0.3219212293624878,0.013385001569986343,-0.19607363641262054,0.04833891615271568,-0.24150970578193665,0.3338199257850647,0.3147539794445038,0.4937598705291748,-0.5464194416999817,0.2850176990032196,0.4320429861545563,-0.022900959476828575,-0.24106214940547943,-0.37375128269195557,0.6556167602539062,-0.08331101387739182,-0.24665150046348572,-0.4010663330554962,0.22897237539291382,-0.26543208956718445,0.28883618116378784,-0.5184260606765747,-0.36625778675079346,-0.2788023352622986
زياده الوزن,0.004565119743347168,-0.05362771078944206,-0.4221087396144867,0.48849236965179443,-0.28979068994522095,0.15779876708984375,-0.15143775939941406,0.616749107837677,0.2362695336341858,0.24741411209106445,0.057967107743024826,-0.3927397131919861,0.4079331159591675,0.0930042415857315,0.36290425062179565,-0.15272392332553864,0.24675904214382172,0.1680532991886139,-0.13931158185005188,-0.9569423794746399,0.19063465297222137,0.8900328278541565,-0.7602716684341431,-0.23880058526992798,-0.5899056792259216,0.4182537794113159,0.8128572702407837,-0.3713681995868683,-0.5220948457717896,-0.2312701791524887,-0.17798613011837006,0.2600114345550537,-0.40815865993499756,0.35920530557632446,-0.5529488325119019,0.26878780126571655,0.26975542306900024,0.5136319398880005,0.23577770590782166,0.10165207087993622,-0.28363749384880066,-0.2549436688423157,-0.17639902234077454,-0.04246801882982254,-0.12261311709880829,0.6565257906913757,0.29098138213157654,0.14447921514511108,-0.12418712675571442,-0.4519882798194885,-0.745219349861145,-0.32744795083999634,0.5992254614830017,0.8935046792030334,0.3232918679714203,0.16135773062705994,0.1701676845550537,0.18205757439136505,-0.04606174677610397,-0.13910385966300964,0.28716030716896057,-0.04668889939785004,0.18062372505664825,-0.9490689039230347,0.08066633343696594,0.018722649663686752,0.018439026549458504,-0.1226448118686676,0.13390123844146729,-0.3113686442375183,0.45452532172203064,-0.33629101514816284,0.17476490139961243,0.3887888789176941,-0.04134424030780792,-0.060978278517723083,0.1810903400182724,0.04382788762450218,0.25305452942848206,-0.3069918751716614,-0.11498556286096573,-0.1332075297832489,0.3371015191078186,-0.2622758448123932,0.14868873357772827,-0.20469671487808228,0.4774138331413269,0.5059201717376709,-0.13185007870197296,-0.531189501285553,0.43739578127861023,-0.18795746564865112,-0.496989369392395,-0.5019024014472961,0.45244506001472473,0.0010157525539398193,-0.7232086062431335,-0.5278364419937134,0.3473757207393646,-0.6728106141090393
التعرق,-0.3005218505859375,0.01629852131009102,-0.1734636127948761,0.8999353051185608,-0.18121212720870972,0.6403470039367676,0.2768351435661316,1.2254737615585327,0.01862230710685253,-0.08503630757331848,-0.09357243776321411,0.3235815465450287,0.6598286628723145,0.6158871054649353,0.7732205390930176,-0.05902884155511856,-0.01853647083044052,-0.7706064581871033,0.18028834462165833,0.06779035925865173,0.25293001532554626,0.18968811631202698,-0.4298642575740814,-1.0433523654937744,0.06182193383574486,0.5358063578605652,0.27303674817085266,-0.09257033467292786,-0.12891797721385956,-0.44544893503189087,-0.8483604192733765,0.15482179820537567,0.08971881866455078,0.6876976490020752,-0.4237961173057556,0.02754686027765274,0.14311353862285614,0.6553563475608826,0.46322357654571533,-0.14339476823806763,-0.6294188499450684,-0.7542721033096313,-0.4103803336620331,0.4105001389980316,-0.2083890438079834,0.6188756823539734,-0.1667015552520752,0.21340827643871307,-0.266495943069458,-0.048417430371046066,-0.4426879286766052,-0.4115222096443176,0.15041036903858185,0.04049641266465187,0.9830806851387024,0.2983764111995697,0.10648706555366516,0.08137340843677521,-0.6251108646392822,-0.6082709431648254,1.1253079175949097,-0.2773827910423279,0.25214192271232605,-0.5252204537391663,-0.26291048526763916,0.2835262417793274,0.588108479976654,-0.490431547164917,0.378160297870636,-0.6329836249351501,0.12478405982255936,-0.18000011146068573,0.270997554063797,0.4636881947517395,-0.25584542751312256,0.006220680195838213,-0.3620132505893707,-0.012822889722883701,-0.27560165524482727,0.01959567703306675,0.056801535189151764,0.38902607560157776,0.9098647832870483,-0.7189220786094666,0.007023550570011139,-0.37228333950042725,0.7185213565826416,0.2785196900367737,-0.11356772482395172,-0.4462094306945801,0.37660616636276245,-0.5687758326530457,0.10809125751256943,-0.6983333826065063,0.23549813032150269,0.11838289350271225,-0.2980816662311554,-1.0974899530410767,0.618913471698761,0.37181755900382996
